digraph Tree {
0 [label="_dna <= 0.5000\ngini = 0.732567278353\nsamples = 10529", shape="box"] ;
1 [label="_dental <= 0.5000\ngini = 0.673349767214\nsamples = 4009", shape="box"] ;
0 -> 1 ;
2 [label="_fingerprints <= 0.5000\ngini = 0.735613716641\nsamples = 1456", shape="box"] ;
1 -> 2 ;
3 [label="images <= 0.5000\ngini = 0.68711872041\nsamples = 1101", shape="box"] ;
2 -> 3 ;
4 [label="r_eye <= 0.5000\ngini = 0.654059482528\nsamples = 954", shape="box"] ;
3 -> 4 ;
5 [label="_face <= 0.5000\ngini = 0.623399398993\nsamples = 729", shape="box"] ;
4 -> 5 ;
6 [label="gini = 0.6230\nsamples = 671\nvalue = [ 122.  320.  229.    0.    0.    0.]", shape="box"] ;
5 -> 6 ;
7 [label="gini = 0.6254\nsamples = 58\nvalue = [ 10.  26.  22.   0.   0.   0.]", shape="box"] ;
5 -> 7 ;
8 [label="_face <= 0.5000\ngini = 0.6208\nsamples = 225", shape="box"] ;
4 -> 8 ;
9 [label="gini = 0.3681\nsamples = 140\nvalue = [ 109.   12.   19.    0.    0.    0.]", shape="box"] ;
8 -> 9 ;
10 [label="gini = 0.5534\nsamples = 85\nvalue = [  5.  39.  41.   0.   0.   0.]", shape="box"] ;
8 -> 10 ;
11 [label="_face <= 0.5000\ngini = 0.666666666667\nsamples = 147", shape="box"] ;
3 -> 11 ;
12 [label="images <= 2.5000\ngini = 0.667107438017\nsamples = 110", shape="box"] ;
11 -> 12 ;
13 [label="gini = 0.6830\nsamples = 87\nvalue = [  3.  23.  30.  31.   0.   0.]", shape="box"] ;
12 -> 13 ;
14 [label="gini = 0.4991\nsamples = 23\nvalue = [  0.   2.  15.   6.   0.   0.]", shape="box"] ;
12 -> 14 ;
15 [label="images <= 2.5000\ngini = 0.528853177502\nsamples = 37", shape="box"] ;
11 -> 15 ;
16 [label="gini = 0.5588\nsamples = 34\nvalue = [  4.   2.   7.  21.   0.   0.]", shape="box"] ;
15 -> 16 ;
17 [label="gini = 0.0000\nsamples = 3\nvalue = [ 0.  0.  0.  3.  0.  0.]", shape="box"] ;
15 -> 17 ;
18 [label="images <= 0.5000\ngini = 0.60613370363\nsamples = 355", shape="box"] ;
2 -> 18 ;
19 [label="_face <= 0.5000\ngini = 0.692618928737\nsamples = 241", shape="box"] ;
18 -> 19 ;
20 [label="r_eye <= 0.5000\ngini = 0.717884948097\nsamples = 136", shape="box"] ;
19 -> 20 ;
21 [label="gini = 0.6625\nsamples = 67\nvalue = [  7.   7.  29.  24.   0.   0.]", shape="box"] ;
20 -> 21 ;
22 [label="gini = 0.6931\nsamples = 69\nvalue = [ 28.   7.  12.  22.   0.   0.]", shape="box"] ;
20 -> 22 ;
23 [label="r_eye <= 0.5000\ngini = 0.604988662132\nsamples = 105", shape="box"] ;
19 -> 23 ;
24 [label="gini = 0.7111\nsamples = 15\nvalue = [ 2.  3.  6.  4.  0.  0.]", shape="box"] ;
23 -> 24 ;
25 [label="gini = 0.5669\nsamples = 90\nvalue = [  1.  13.  23.  53.   0.   0.]", shape="box"] ;
23 -> 25 ;
26 [label="_face <= 0.5000\ngini = 0.260233918129\nsamples = 114", shape="box"] ;
18 -> 26 ;
27 [label="images <= 3.5000\ngini = 0.389273356401\nsamples = 34", shape="box"] ;
26 -> 27 ;
28 [label="gini = 0.4362\nsamples = 28\nvalue = [  0.   0.   9.  19.   0.   0.]", shape="box"] ;
27 -> 28 ;
29 [label="gini = 0.0000\nsamples = 6\nvalue = [ 0.  0.  0.  6.  0.  0.]", shape="box"] ;
27 -> 29 ;
30 [label="images <= 1.5000\ngini = 0.1846875\nsamples = 80", shape="box"] ;
26 -> 30 ;
31 [label="gini = 0.2251\nsamples = 56\nvalue = [  2.   0.   5.  49.   0.   0.]", shape="box"] ;
30 -> 31 ;
32 [label="gini = 0.0799\nsamples = 24\nvalue = [  1.   0.   0.  23.   0.   0.]", shape="box"] ;
30 -> 32 ;
33 [label="images <= 0.5000\ngini = 0.53506906999\nsamples = 2553", shape="box"] ;
1 -> 33 ;
34 [label="_fingerprints <= 0.5000\ngini = 0.367106508876\nsamples = 1300", shape="box"] ;
33 -> 34 ;
35 [label="_face <= 0.5000\ngini = 0.405392538507\nsamples = 872", shape="box"] ;
34 -> 35 ;
36 [label="r_eye <= 0.5000\ngini = 0.391548641601\nsamples = 801", shape="box"] ;
35 -> 36 ;
37 [label="gini = 0.3774\nsamples = 734\nvalue = [  47.   43.   73.  571.    0.    0.]", shape="box"] ;
36 -> 37 ;
38 [label="gini = 0.5204\nsamples = 67\nvalue = [ 12.   3.   8.  44.   0.   0.]", shape="box"] ;
36 -> 38 ;
39 [label="r_eye <= 0.5000\ngini = 0.521325133902\nsamples = 71", shape="box"] ;
35 -> 39 ;
40 [label="gini = 0.4444\nsamples = 12\nvalue = [ 0.  4.  0.  8.  0.  0.]", shape="box"] ;
39 -> 40 ;
41 [label="gini = 0.5320\nsamples = 59\nvalue = [  4.  12.   5.  38.   0.   0.]", shape="box"] ;
39 -> 41 ;
42 [label="_face <= 0.5000\ngini = 0.281825923661\nsamples = 428", shape="box"] ;
34 -> 42 ;
43 [label="r_eye <= 0.5000\ngini = 0.376631944444\nsamples = 240", shape="box"] ;
42 -> 43 ;
44 [label="gini = 0.3837\nsamples = 140\nvalue = [  16.    4.   12.  108.    0.    0.]", shape="box"] ;
43 -> 44 ;
45 [label="gini = 0.3654\nsamples = 100\nvalue = [ 15.   1.   6.  78.   0.   0.]", shape="box"] ;
43 -> 45 ;
46 [label="r_eye <= 0.5000\ngini = 0.138580805794\nsamples = 188", shape="box"] ;
42 -> 46 ;
47 [label="gini = 0.1049\nsamples = 18\nvalue = [  0.   0.   1.  17.   0.   0.]", shape="box"] ;
46 -> 47 ;
48 [label="gini = 0.1421\nsamples = 170\nvalue = [   0.    1.   12.  157.    0.    0.]", shape="box"] ;
46 -> 48 ;
49 [label="images <= 1.5000\ngini = 0.596822056434\nsamples = 1253", shape="box"] ;
33 -> 49 ;
50 [label="r_eye <= 0.5000\ngini = 0.597571303457\nsamples = 984", shape="box"] ;
49 -> 50 ;
51 [label="_fingerprints <= 0.5000\ngini = 0.597099727949\nsamples = 353", shape="box"] ;
50 -> 51 ;
52 [label="gini = 0.6049\nsamples = 253\nvalue = [   2.   31.  102.  118.    0.    0.]", shape="box"] ;
51 -> 52 ;
53 [label="gini = 0.5632\nsamples = 100\nvalue = [  0.   8.  52.  40.   0.   0.]", shape="box"] ;
51 -> 53 ;
54 [label="_fingerprints <= 0.5000\ngini = 0.580539028182\nsamples = 631", shape="box"] ;
50 -> 54 ;
55 [label="gini = 0.5541\nsamples = 331\nvalue = [   0.   66.  201.   64.    0.    0.]", shape="box"] ;
54 -> 55 ;
56 [label="gini = 0.5858\nsamples = 300\nvalue = [   1.   34.  155.  110.    0.    0.]", shape="box"] ;
54 -> 56 ;
57 [label="_face <= 0.5000\ngini = 0.146321913738\nsamples = 269", shape="box"] ;
49 -> 57 ;
58 [label="images <= 2.5000\ngini = 0.221481789995\nsamples = 147", shape="box"] ;
57 -> 58 ;
59 [label="gini = 0.3085\nsamples = 61\nvalue = [  3.   0.   8.  50.   0.   0.]", shape="box"] ;
58 -> 59 ;
60 [label="gini = 0.1522\nsamples = 86\nvalue = [  0.   2.   5.  79.   0.   0.]", shape="box"] ;
58 -> 60 ;
61 [label="images <= 7.5000\ngini = 0.0479709755442\nsamples = 122", shape="box"] ;
57 -> 61 ;
62 [label="gini = 0.0330\nsamples = 119\nvalue = [   0.    0.    2.  117.    0.    0.]", shape="box"] ;
61 -> 62 ;
63 [label="gini = 0.4444\nsamples = 3\nvalue = [ 0.  0.  1.  2.  0.  0.]", shape="box"] ;
61 -> 63 ;
64 [label="_dental <= 0.5000\ngini = 0.625142129926\nsamples = 6520", shape="box"] ;
0 -> 64 ;
65 [label="images <= 0.5000\ngini = 0.627582153423\nsamples = 1456", shape="box"] ;
64 -> 65 ;
66 [label="r_eye <= 0.5000\ngini = 0.570803783971\nsamples = 1136", shape="box"] ;
65 -> 66 ;
67 [label="_fingerprints <= 0.5000\ngini = 0.53932613591\nsamples = 959", shape="box"] ;
66 -> 67 ;
68 [label="_face <= 0.5000\ngini = 0.531731941071\nsamples = 909", shape="box"] ;
67 -> 68 ;
69 [label="gini = 0.5285\nsamples = 868\nvalue = [  39.  184.   86.  559.    0.    0.]", shape="box"] ;
68 -> 69 ;
70 [label="gini = 0.5877\nsamples = 41\nvalue = [  2.  12.   4.  23.   0.   0.]", shape="box"] ;
68 -> 70 ;
71 [label="_face <= 0.5000\ngini = 0.6248\nsamples = 50", shape="box"] ;
67 -> 71 ;
72 [label="gini = 0.6265\nsamples = 47\nvalue = [  2.   3.  10.  26.   6.   0.]", shape="box"] ;
71 -> 72 ;
73 [label="gini = 0.4444\nsamples = 3\nvalue = [ 1.  0.  0.  2.  0.  0.]", shape="box"] ;
71 -> 73 ;
74 [label="_face <= 0.5000\ngini = 0.663474735868\nsamples = 177", shape="box"] ;
66 -> 74 ;
75 [label="_fingerprints <= 0.5000\ngini = 0.586226308876\nsamples = 73", shape="box"] ;
74 -> 75 ;
76 [label="gini = 0.5166\nsamples = 62\nvalue = [ 39.   2.   3.  18.   0.   0.]", shape="box"] ;
75 -> 76 ;
77 [label="gini = 0.6446\nsamples = 11\nvalue = [ 1.  1.  1.  6.  2.  0.]", shape="box"] ;
75 -> 77 ;
78 [label="_fingerprints <= 0.5000\ngini = 0.565458579882\nsamples = 104", shape="box"] ;
74 -> 78 ;
79 [label="gini = 0.3451\nsamples = 55\nvalue = [  2.   5.   4.  44.   0.   0.]", shape="box"] ;
78 -> 79 ;
80 [label="gini = 0.6722\nsamples = 49\nvalue = [  2.   2.   7.  21.  17.   0.]", shape="box"] ;
78 -> 80 ;
81 [label="images <= 5.5000\ngini = 0.61052734375\nsamples = 320", shape="box"] ;
65 -> 81 ;
82 [label="images <= 3.5000\ngini = 0.604266171519\nsamples = 299", shape="box"] ;
81 -> 82 ;
83 [label="images <= 1.5000\ngini = 0.596454254183\nsamples = 265", shape="box"] ;
82 -> 83 ;
84 [label="gini = 0.5909\nsamples = 184\nvalue = [  1.  11.   9.  68.  95.   0.]", shape="box"] ;
83 -> 84 ;
85 [label="gini = 0.6014\nsamples = 81\nvalue = [  1.   0.   9.  33.  38.   0.]", shape="box"] ;
83 -> 85 ;
86 [label="images <= 4.5000\ngini = 0.551903114187\nsamples = 34", shape="box"] ;
82 -> 86 ;
87 [label="gini = 0.4259\nsamples = 18\nvalue = [  0.   0.   1.  13.   4.   0.]", shape="box"] ;
86 -> 87 ;
88 [label="gini = 0.6562\nsamples = 16\nvalue = [ 0.  2.  2.  8.  4.  0.]", shape="box"] ;
86 -> 88 ;
89 [label="_face <= 0.5000\ngini = 0.607709750567\nsamples = 21", shape="box"] ;
81 -> 89 ;
90 [label="images <= 10.0000\ngini = 0.553633217993\nsamples = 17", shape="box"] ;
89 -> 90 ;
91 [label="gini = 0.5204\nsamples = 14\nvalue = [ 0.  0.  3.  2.  9.  0.]", shape="box"] ;
90 -> 91 ;
92 [label="gini = 0.4444\nsamples = 3\nvalue = [ 0.  0.  2.  0.  1.  0.]", shape="box"] ;
90 -> 92 ;
93 [label="images <= 6.5000\ngini = 0.625\nsamples = 4", shape="box"] ;
89 -> 93 ;
94 [label="gini = 0.6667\nsamples = 3\nvalue = [ 0.  0.  1.  1.  1.  0.]", shape="box"] ;
93 -> 94 ;
95 [label="gini = 0.0000\nsamples = 1\nvalue = [ 0.  0.  0.  1.  0.  0.]", shape="box"] ;
93 -> 95 ;
96 [label="_fingerprints <= 0.5000\ngini = 0.532449418377\nsamples = 5064", shape="box"] ;
64 -> 96 ;
97 [label="images <= 0.5000\ngini = 0.434752949191\nsamples = 3340", shape="box"] ;
96 -> 97 ;
98 [label="r_eye <= 0.5000\ngini = 0.522238469356\nsamples = 1749", shape="box"] ;
97 -> 98 ;
99 [label="_face <= 0.5000\ngini = 0.521450916105\nsamples = 1637", shape="box"] ;
98 -> 99 ;
100 [label="gini = 0.5202\nsamples = 1627\nvalue = [   14.    68.    32.   512.  1001.     0.]", shape="box"] ;
99 -> 100 ;
101 [label="gini = 0.6400\nsamples = 10\nvalue = [ 0.  2.  0.  4.  4.  0.]", shape="box"] ;
99 -> 101 ;
102 [label="_face <= 0.5000\ngini = 0.529496173469\nsamples = 112", shape="box"] ;
98 -> 102 ;
103 [label="gini = 0.5247\nsamples = 68\nvalue = [  4.   0.   3.  18.  43.   0.]", shape="box"] ;
102 -> 103 ;
104 [label="gini = 0.5320\nsamples = 44\nvalue = [  2.   0.   1.  15.  26.   0.]", shape="box"] ;
102 -> 104 ;
105 [label="images <= 20.5000\ngini = 0.306677133041\nsamples = 1591", shape="box"] ;
97 -> 105 ;
106 [label="_face <= 0.5000\ngini = 0.303342066867\nsamples = 1581", shape="box"] ;
105 -> 106 ;
107 [label="gini = 0.2943\nsamples = 1457\nvalue = [    5.     2.     9.   241.  1200.     0.]", shape="box"] ;
106 -> 107 ;
108 [label="gini = 0.3948\nsamples = 124\nvalue = [  0.   0.   1.  32.  91.   0.]", shape="box"] ;
106 -> 108 ;
109 [label="images <= 28.5000\ngini = 0.48\nsamples = 10", shape="box"] ;
105 -> 109 ;
110 [label="gini = 0.4444\nsamples = 9\nvalue = [ 0.  0.  0.  6.  3.  0.]", shape="box"] ;
109 -> 110 ;
111 [label="gini = 0.0000\nsamples = 1\nvalue = [ 0.  0.  0.  0.  1.  0.]", shape="box"] ;
109 -> 111 ;
112 [label="images <= 0.5000\ngini = 0.641890655197\nsamples = 1724", shape="box"] ;
96 -> 112 ;
113 [label="r_eye <= 0.5000\ngini = 0.423798757321\nsamples = 686", shape="box"] ;
112 -> 113 ;
114 [label="_face <= 0.5000\ngini = 0.441581963668\nsamples = 272", shape="box"] ;
113 -> 114 ;
115 [label="gini = 0.4209\nsamples = 250\nvalue = [   2.    1.    8.   58.  181.    0.]", shape="box"] ;
114 -> 115 ;
116 [label="gini = 0.6074\nsamples = 22\nvalue = [  0.   2.   1.   8.  11.   0.]", shape="box"] ;
114 -> 116 ;
117 [label="_face <= 0.5000\ngini = 0.410978085836\nsamples = 414", shape="box"] ;
113 -> 117 ;
118 [label="gini = 0.4886\nsamples = 120\nvalue = [  7.   0.   5.  27.  81.   0.]", shape="box"] ;
117 -> 118 ;
119 [label="gini = 0.3757\nsamples = 294\nvalue = [   1.    2.    9.   57.  225.    0.]", shape="box"] ;
117 -> 119 ;
120 [label="images <= 2.5000\ngini = 0.64687909534\nsamples = 1038", shape="box"] ;
112 -> 120 ;
121 [label="images <= 1.5000\ngini = 0.658751936983\nsamples = 704", shape="box"] ;
120 -> 121 ;
122 [label="gini = 0.6737\nsamples = 402\nvalue = [   5.    0.    8.   95.  133.  161.]", shape="box"] ;
121 -> 122 ;
123 [label="gini = 0.6183\nsamples = 302\nvalue = [   1.    0.    0.   53.  149.   99.]", shape="box"] ;
121 -> 123 ;
124 [label="images <= 13.5000\ngini = 0.557459930439\nsamples = 334", shape="box"] ;
120 -> 124 ;
125 [label="gini = 0.5472\nsamples = 323\nvalue = [   1.    0.    3.   51.   68.  200.]", shape="box"] ;
124 -> 125 ;
126 [label="gini = 0.5950\nsamples = 11\nvalue = [ 0.  0.  0.  6.  2.  3.]", shape="box"] ;
124 -> 126 ;
}