digraph Tree {
0 [label="_dna <= 0.5000\ngini = 0.732567278353\nsamples = 10529", shape="box"] ;
1 [label="_dental <= 0.5000\ngini = 0.673349767214\nsamples = 4009", shape="box"] ;
0 -> 1 ;
2 [label="_fingerprints <= 0.5000\ngini = 0.735613716641\nsamples = 1456", shape="box"] ;
1 -> 2 ;
3 [label="weight_bin <= 0.5000\ngini = 0.68711872041\nsamples = 1101", shape="box"] ;
2 -> 3 ;
4 [label="all_parts_recovered <= 0.5000\ngini = 0.562623772152\nsamples = 421", shape="box"] ;
3 -> 4 ;
5 [label="images <= 0.5000\ngini = 0.515855300454\nsamples = 336", shape="box"] ;
4 -> 5 ;
6 [label="skeletal_findings <= 0.5000\ngini = 0.458327045923\nsamples = 282", shape="box"] ;
5 -> 6 ;
7 [label="gini = 0.4256\nsamples = 251\nvalue = [  16.  182.   53.    0.    0.    0.]", shape="box"] ;
6 -> 7 ;
8 [label="gini = 0.4745\nsamples = 31\nvalue = [  0.  12.  19.   0.   0.   0.]", shape="box"] ;
6 -> 8 ;
9 [label="images <= 2.5000\ngini = 0.661865569273\nsamples = 54", shape="box"] ;
5 -> 9 ;
10 [label="gini = 0.6317\nsamples = 43\nvalue = [  0.  19.   8.  16.   0.   0.]", shape="box"] ;
9 -> 10 ;
11 [label="gini = 0.2975\nsamples = 11\nvalue = [ 0.  2.  9.  0.  0.  0.]", shape="box"] ;
9 -> 11 ;
12 [label="age_range <= 3.0000\ngini = 0.500484429066\nsamples = 85", shape="box"] ;
4 -> 12 ;
13 [label="age_range <= 0.5000\ngini = 0.37037037037\nsamples = 9", shape="box"] ;
12 -> 13 ;
14 [label="gini = 0.2778\nsamples = 6\nvalue = [ 1.  5.  0.  0.  0.  0.]", shape="box"] ;
13 -> 14 ;
15 [label="gini = 0.4444\nsamples = 3\nvalue = [ 0.  2.  1.  0.  0.  0.]", shape="box"] ;
13 -> 15 ;
16 [label="_sex <= 0.5000\ngini = 0.438019390582\nsamples = 76", shape="box"] ;
12 -> 16 ;
17 [label="gini = 0.0000\nsamples = 2\nvalue = [ 0.  2.  0.  0.  0.  0.]", shape="box"] ;
16 -> 17 ;
18 [label="gini = 0.4167\nsamples = 74\nvalue = [  3.  12.  55.   4.   0.   0.]", shape="box"] ;
16 -> 18 ;
19 [label="images <= 0.5000\ngini = 0.699744809689\nsamples = 680", shape="box"] ;
3 -> 19 ;
20 [label="age_range <= 1.5000\ngini = 0.663633516404\nsamples = 598", shape="box"] ;
19 -> 20 ;
21 [label="_face <= 0.5000\ngini = 0.515606420927\nsamples = 116", shape="box"] ;
20 -> 21 ;
22 [label="gini = 0.5646\nsamples = 69\nvalue = [ 32.  32.   5.   0.   0.   0.]", shape="box"] ;
21 -> 22 ;
23 [label="gini = 0.2273\nsamples = 47\nvalue = [  1.  41.   5.   0.   0.   0.]", shape="box"] ;
21 -> 23 ;
24 [label="l_eye <= 0.5000\ngini = 0.649670288046\nsamples = 482", shape="box"] ;
20 -> 24 ;
25 [label="gini = 0.6563\nsamples = 305\nvalue = [  88.   90.  127.    0.    0.    0.]", shape="box"] ;
24 -> 25 ;
26 [label="gini = 0.5490\nsamples = 177\nvalue = [ 105.   20.   52.    0.    0.    0.]", shape="box"] ;
24 -> 26 ;
27 [label="_face <= 0.5000\ngini = 0.613920285544\nsamples = 82", shape="box"] ;
19 -> 27 ;
28 [label="age_range <= 8.5000\ngini = 0.609640831758\nsamples = 46", shape="box"] ;
27 -> 28 ;
29 [label="gini = 0.6531\nsamples = 7\nvalue = [ 3.  2.  0.  2.  0.  0.]", shape="box"] ;
28 -> 29 ;
30 [label="gini = 0.5128\nsamples = 39\nvalue = [  0.   1.  22.  16.   0.   0.]", shape="box"] ;
28 -> 30 ;
31 [label="tattoos <= 0.5000\ngini = 0.538580246914\nsamples = 36", shape="box"] ;
27 -> 31 ;
32 [label="gini = 0.4408\nsamples = 26\nvalue = [  3.   2.   2.  19.   0.   0.]", shape="box"] ;
31 -> 32 ;
33 [label="gini = 0.5800\nsamples = 10\nvalue = [ 1.  0.  5.  4.  0.  0.]", shape="box"] ;
31 -> 33 ;
34 [label="images <= 0.5000\ngini = 0.60613370363\nsamples = 355", shape="box"] ;
2 -> 34 ;
35 [label="age_range <= 6.5000\ngini = 0.692618928737\nsamples = 241", shape="box"] ;
34 -> 35 ;
36 [label="_face <= 0.5000\ngini = 0.613573407202\nsamples = 38", shape="box"] ;
35 -> 36 ;
37 [label="l_eye <= 0.5000\ngini = 0.508917954816\nsamples = 29", shape="box"] ;
36 -> 37 ;
38 [label="gini = 0.3750\nsamples = 4\nvalue = [ 0.  0.  3.  1.  0.  0.]", shape="box"] ;
37 -> 38 ;
39 [label="gini = 0.3808\nsamples = 25\nvalue = [ 19.   0.   1.   5.   0.   0.]", shape="box"] ;
37 -> 39 ;
40 [label="scars_and_marks <= 0.5000\ngini = 0.617283950617\nsamples = 9", shape="box"] ;
36 -> 40 ;
41 [label="gini = 0.6667\nsamples = 3\nvalue = [ 1.  1.  1.  0.  0.  0.]", shape="box"] ;
40 -> 41 ;
42 [label="gini = 0.2778\nsamples = 6\nvalue = [ 0.  0.  1.  5.  0.  0.]", shape="box"] ;
40 -> 42 ;
43 [label="age_range <= 14.5000\ngini = 0.666941687495\nsamples = 203", shape="box"] ;
35 -> 43 ;
44 [label="_face <= 0.5000\ngini = 0.617984693878\nsamples = 112", shape="box"] ;
43 -> 44 ;
45 [label="gini = 0.6883\nsamples = 65\nvalue = [ 15.   4.  20.  26.   0.   0.]", shape="box"] ;
44 -> 45 ;
46 [label="gini = 0.4292\nsamples = 47\nvalue = [  1.   2.  10.  34.   0.   0.]", shape="box"] ;
44 -> 46 ;
47 [label="other_distinctive_features <= 0.5000\ngini = 0.672382562492\nsamples = 91", shape="box"] ;
43 -> 47 ;
48 [label="gini = 0.6730\nsamples = 83\nvalue = [  2.  21.  28.  32.   0.   0.]", shape="box"] ;
47 -> 48 ;
49 [label="gini = 0.3750\nsamples = 8\nvalue = [ 0.  2.  6.  0.  0.  0.]", shape="box"] ;
47 -> 49 ;
50 [label="all_parts_recovered <= 0.5000\ngini = 0.260233918129\nsamples = 114", shape="box"] ;
34 -> 50 ;
51 [label="tattoos <= 0.5000\ngini = 0.612244897959\nsamples = 7", shape="box"] ;
50 -> 51 ;
52 [label="_face <= 0.5000\ngini = 0.375\nsamples = 4", shape="box"] ;
51 -> 52 ;
53 [label="gini = 0.0000\nsamples = 1\nvalue = [ 0.  0.  0.  1.  0.  0.]", shape="box"] ;
52 -> 53 ;
54 [label="gini = 0.4444\nsamples = 3\nvalue = [ 1.  0.  0.  2.  0.  0.]", shape="box"] ;
52 -> 54 ;
55 [label="scars_and_marks <= 0.5000\ngini = 0.444444444444\nsamples = 3", shape="box"] ;
51 -> 55 ;
56 [label="gini = 0.0000\nsamples = 1\nvalue = [ 0.  0.  1.  0.  0.  0.]", shape="box"] ;
55 -> 56 ;
57 [label="gini = 0.0000\nsamples = 2\nvalue = [ 2.  0.  0.  0.  0.  0.]", shape="box"] ;
55 -> 57 ;
58 [label="_face <= 0.5000\ngini = 0.21346842519\nsamples = 107", shape="box"] ;
50 -> 58 ;
59 [label="other_distinctive_features <= 0.5000\ngini = 0.396694214876\nsamples = 33", shape="box"] ;
58 -> 59 ;
60 [label="gini = 0.3496\nsamples = 31\nvalue = [  0.   0.   7.  24.   0.   0.]", shape="box"] ;
59 -> 60 ;
61 [label="gini = 0.0000\nsamples = 2\nvalue = [ 0.  0.  2.  0.  0.  0.]", shape="box"] ;
59 -> 61 ;
62 [label="images <= 1.5000\ngini = 0.102264426589\nsamples = 74", shape="box"] ;
58 -> 62 ;
63 [label="gini = 0.1446\nsamples = 51\nvalue = [  0.   0.   4.  47.   0.   0.]", shape="box"] ;
62 -> 63 ;
64 [label="gini = 0.0000\nsamples = 23\nvalue = [  0.   0.   0.  23.   0.   0.]", shape="box"] ;
62 -> 64 ;
65 [label="images <= 0.5000\ngini = 0.53506906999\nsamples = 2553", shape="box"] ;
1 -> 65 ;
66 [label="age_range <= 1.5000\ngini = 0.367106508876\nsamples = 1300", shape="box"] ;
65 -> 66 ;
67 [label="age_range <= 0.5000\ngini = 0.68244170096\nsamples = 54", shape="box"] ;
66 -> 67 ;
68 [label="_fingerprints <= 0.5000\ngini = 0.498046875\nsamples = 32", shape="box"] ;
67 -> 68 ;
69 [label="_sex <= 0.5000\ngini = 0.605\nsamples = 20", shape="box"] ;
68 -> 69 ;
70 [label="gini = 0.4444\nsamples = 3\nvalue = [ 0.  2.  0.  1.  0.  0.]", shape="box"] ;
69 -> 70 ;
71 [label="gini = 0.5467\nsamples = 17\nvalue = [ 7.  1.  0.  9.  0.  0.]", shape="box"] ;
69 -> 71 ;
72 [label="n-limbs_not_recovered <= 0.5000\ngini = 0.152777777778\nsamples = 12", shape="box"] ;
68 -> 72 ;
73 [label="gini = 0.0000\nsamples = 11\nvalue = [  0.   0.   0.  11.   0.   0.]", shape="box"] ;
72 -> 73 ;
74 [label="gini = 0.0000\nsamples = 1\nvalue = [ 1.  0.  0.  0.  0.  0.]", shape="box"] ;
72 -> 74 ;
75 [label="_fingerprints <= 0.5000\ngini = 0.623966942149\nsamples = 22", shape="box"] ;
67 -> 75 ;
76 [label="other_distinctive_features <= 0.5000\ngini = 0.607709750567\nsamples = 21", shape="box"] ;
75 -> 76 ;
77 [label="gini = 0.5741\nsamples = 18\nvalue = [  2.  11.   2.   3.   0.   0.]", shape="box"] ;
76 -> 77 ;
78 [label="gini = 0.4444\nsamples = 3\nvalue = [ 0.  1.  2.  0.  0.  0.]", shape="box"] ;
76 -> 78 ;
79 [label="gini = 0.0000\nsamples = 1\nvalue = [ 0.  0.  1.  0.  0.  0.]", shape="box"] ;
75 -> 79 ;
80 [label="age_range <= 90.5000\ngini = 0.345309162675\nsamples = 1246", shape="box"] ;
66 -> 80 ;
81 [label="_face <= 0.5000\ngini = 0.330770353754\nsamples = 1185", shape="box"] ;
80 -> 81 ;
82 [label="height_bin <= 0.5000\ngini = 0.353218812841\nsamples = 944", shape="box"] ;
81 -> 82 ;
83 [label="gini = 0.3312\nsamples = 366\nvalue = [  11.   22.   37.  296.    0.    0.]", shape="box"] ;
82 -> 83 ;
84 [label="gini = 0.3633\nsamples = 578\nvalue = [  67.   13.   44.  454.    0.    0.]", shape="box"] ;
82 -> 84 ;
85 [label="_fingerprints <= 0.5000\ngini = 0.234086878669\nsamples = 241", shape="box"] ;
81 -> 85 ;
86 [label="gini = 0.4964\nsamples = 59\nvalue = [  4.  11.   4.  40.   0.   0.]", shape="box"] ;
85 -> 86 ;
87 [label="gini = 0.1238\nsamples = 182\nvalue = [   0.    1.   11.  170.    0.    0.]", shape="box"] ;
85 -> 87 ;
88 [label="other_distinctive_features <= 0.5000\ngini = 0.552539639882\nsamples = 61", shape="box"] ;
80 -> 88 ;
89 [label="age_range <= 98.5000\ngini = 0.536780547861\nsamples = 57", shape="box"] ;
88 -> 89 ;
90 [label="gini = 0.0000\nsamples = 1\nvalue = [ 0.  1.  0.  0.  0.  0.]", shape="box"] ;
89 -> 90 ;
91 [label="gini = 0.5236\nsamples = 56\nvalue = [  2.   5.  13.  36.   0.   0.]", shape="box"] ;
89 -> 91 ;
92 [label="weight_bin <= 0.5000\ngini = 0.375\nsamples = 4", shape="box"] ;
88 -> 92 ;
93 [label="gini = 0.0000\nsamples = 1\nvalue = [ 0.  0.  0.  1.  0.  0.]", shape="box"] ;
92 -> 93 ;
94 [label="gini = 0.0000\nsamples = 3\nvalue = [ 0.  0.  3.  0.  0.  0.]", shape="box"] ;
92 -> 94 ;
95 [label="images <= 1.5000\ngini = 0.596822056434\nsamples = 1253", shape="box"] ;
65 -> 95 ;
96 [label="scars_and_marks <= 0.5000\ngini = 0.597571303457\nsamples = 984", shape="box"] ;
95 -> 96 ;
97 [label="age_range <= 14.5000\ngini = 0.648683794154\nsamples = 636", shape="box"] ;
96 -> 97 ;
98 [label="all_parts_recovered <= 0.5000\ngini = 0.556423611111\nsamples = 192", shape="box"] ;
97 -> 98 ;
99 [label="gini = 0.1482\nsamples = 38\nvalue = [  0.   1.   2.  35.   0.   0.]", shape="box"] ;
98 -> 99 ;
100 [label="gini = 0.6108\nsamples = 154\nvalue = [  0.  35.  38.  81.   0.   0.]", shape="box"] ;
98 -> 100 ;
101 [label="_face <= 0.5000\ngini = 0.63524673322\nsamples = 444", shape="box"] ;
97 -> 101 ;
102 [label="gini = 0.5723\nsamples = 275\nvalue = [   2.   33.  155.   85.    0.    0.]", shape="box"] ;
101 -> 102 ;
103 [label="gini = 0.6538\nsamples = 169\nvalue = [  0.  69.  58.  42.   0.   0.]", shape="box"] ;
101 -> 103 ;
104 [label="other_medical_information <= 0.5000\ngini = 0.389186154049\nsamples = 348", shape="box"] ;
96 -> 104 ;
105 [label="age_range <= 9.5000\ngini = 0.355730149514\nsamples = 332", shape="box"] ;
104 -> 105 ;
106 [label="gini = 0.0000\nsamples = 8\nvalue = [ 0.  0.  0.  8.  0.  0.]", shape="box"] ;
105 -> 106 ;
107 [label="gini = 0.3342\nsamples = 324\nvalue = [   1.    1.  256.   66.    0.    0.]", shape="box"] ;
105 -> 107 ;
108 [label="_face <= 0.5000\ngini = 0.1171875\nsamples = 16", shape="box"] ;
104 -> 108 ;
109 [label="gini = 0.4444\nsamples = 3\nvalue = [ 0.  0.  1.  2.  0.  0.]", shape="box"] ;
108 -> 109 ;
110 [label="gini = 0.0000\nsamples = 13\nvalue = [  0.   0.   0.  13.   0.   0.]", shape="box"] ;
108 -> 110 ;
111 [label="tattoos <= 0.5000\ngini = 0.146321913738\nsamples = 269", shape="box"] ;
95 -> 111 ;
112 [label="_fingerprints <= 0.5000\ngini = 0.103888126779\nsamples = 221", shape="box"] ;
111 -> 112 ;
113 [label="piercings <= 0.5000\ngini = 0.178362573099\nsamples = 114", shape="box"] ;
112 -> 113 ;
114 [label="gini = 0.1536\nsamples = 110\nvalue = [   1.    2.    6.  101.    0.    0.]", shape="box"] ;
113 -> 114 ;
115 [label="gini = 0.5000\nsamples = 4\nvalue = [ 0.  0.  2.  2.  0.  0.]", shape="box"] ;
113 -> 115 ;
116 [label="l_eye <= 0.5000\ngini = 0.0185169010394\nsamples = 107", shape="box"] ;
112 -> 116 ;
117 [label="gini = 0.0799\nsamples = 24\nvalue = [  0.   0.   1.  23.   0.   0.]", shape="box"] ;
116 -> 117 ;
118 [label="gini = 0.0000\nsamples = 83\nvalue = [  0.   0.   0.  83.   0.   0.]", shape="box"] ;
116 -> 118 ;
119 [label="age_range <= 3.5000\ngini = 0.316840277778\nsamples = 48", shape="box"] ;
111 -> 119 ;
120 [label="gini = 0.0000\nsamples = 1\nvalue = [ 1.  0.  0.  0.  0.  0.]", shape="box"] ;
119 -> 120 ;
121 [label="age_range <= 17.5000\ngini = 0.288818469896\nsamples = 47", shape="box"] ;
119 -> 121 ;
122 [label="gini = 0.3856\nsamples = 23\nvalue = [  0.   0.   6.  17.   0.   0.]", shape="box"] ;
121 -> 122 ;
123 [label="gini = 0.1562\nsamples = 24\nvalue = [  1.   0.   1.  22.   0.   0.]", shape="box"] ;
121 -> 123 ;
124 [label="_dental <= 0.5000\ngini = 0.625142129926\nsamples = 6520", shape="box"] ;
0 -> 124 ;
125 [label="images <= 0.5000\ngini = 0.627582153423\nsamples = 1456", shape="box"] ;
124 -> 125 ;
126 [label="height_bin <= 0.5000\ngini = 0.570803783971\nsamples = 1136", shape="box"] ;
125 -> 126 ;
127 [label="_sex <= 0.5000\ngini = 0.503310365457\nsamples = 689", shape="box"] ;
126 -> 127 ;
128 [label="head_not_recovered <= 0.5000\ngini = 0.5653125\nsamples = 160", shape="box"] ;
127 -> 128 ;
129 [label="all_parts_recovered <= 0.5000\ngini = 0.562736614386\nsamples = 86", shape="box"] ;
128 -> 129 ;
130 [label="gini = 0.5313\nsamples = 81\nvalue = [  0.  47.   5.  29.   0.   0.]", shape="box"] ;
129 -> 130 ;
131 [label="gini = 0.4800\nsamples = 5\nvalue = [ 0.  0.  3.  2.  0.  0.]", shape="box"] ;
129 -> 131 ;
132 [label="age_range <= 83.0000\ngini = 0.49707815924\nsamples = 74", shape="box"] ;
128 -> 132 ;
133 [label="gini = 0.2987\nsamples = 23\nvalue = [  0.   3.   1.  19.   0.   0.]", shape="box"] ;
132 -> 133 ;
134 [label="gini = 0.5413\nsamples = 51\nvalue = [  0.  20.   3.  28.   0.   0.]", shape="box"] ;
132 -> 134 ;
135 [label="head_not_recovered <= 0.5000\ngini = 0.458360283161\nsamples = 529", shape="box"] ;
127 -> 135 ;
136 [label="piercings <= 0.5000\ngini = 0.548738868141\nsamples = 295", shape="box"] ;
135 -> 136 ;
137 [label="gini = 0.5398\nsamples = 291\nvalue = [   3.   70.   36.  181.    1.    0.]", shape="box"] ;
136 -> 137 ;
138 [label="gini = 0.0000\nsamples = 4\nvalue = [ 0.  0.  4.  0.  0.  0.]", shape="box"] ;
136 -> 138 ;
139 [label="n-limbs_not_recovered <= 0.5000\ngini = 0.309335963182\nsamples = 234", shape="box"] ;
135 -> 139 ;
140 [label="gini = 0.5113\nsamples = 29\nvalue = [  0.   5.   5.  19.   0.   0.]", shape="box"] ;
139 -> 140 ;
141 [label="gini = 0.2739\nsamples = 205\nvalue = [   0.   22.   10.  173.    0.    0.]", shape="box"] ;
139 -> 141 ;
142 [label="_fingerprints <= 0.5000\ngini = 0.632784309015\nsamples = 447", shape="box"] ;
126 -> 142 ;
143 [label="_face <= 0.5000\ngini = 0.593456331405\nsamples = 353", shape="box"] ;
142 -> 143 ;
144 [label="l_eye <= 0.5000\ngini = 0.608336104324\nsamples = 263", shape="box"] ;
143 -> 144 ;
145 [label="gini = 0.5545\nsamples = 199\nvalue = [  36.   19.   19.  125.    0.    0.]", shape="box"] ;
144 -> 145 ;
146 [label="gini = 0.5425\nsamples = 64\nvalue = [ 39.   2.   5.  18.   0.   0.]", shape="box"] ;
144 -> 146 ;
147 [label="l_eye <= 0.5000\ngini = 0.483950617284\nsamples = 90", shape="box"] ;
143 -> 147 ;
148 [label="gini = 0.6204\nsamples = 35\nvalue = [  2.  11.   4.  18.   0.   0.]", shape="box"] ;
147 -> 148 ;
149 [label="gini = 0.3451\nsamples = 55\nvalue = [  2.   5.   4.  44.   0.   0.]", shape="box"] ;
147 -> 149 ;
150 [label="other_medical_information <= 0.5000\ngini = 0.689678587596\nsamples = 94", shape="box"] ;
142 -> 150 ;
151 [label="head_not_recovered <= 0.5000\ngini = 0.670874889534\nsamples = 89", shape="box"] ;
150 -> 151 ;
152 [label="gini = 0.6624\nsamples = 81\nvalue = [  6.   4.  11.  41.  19.   0.]", shape="box"] ;
151 -> 152 ;
153 [label="gini = 0.5312\nsamples = 8\nvalue = [ 0.  1.  0.  2.  5.  0.]", shape="box"] ;
151 -> 153 ;
154 [label="gini = 0.0000\nsamples = 5\nvalue = [ 0.  0.  5.  0.  0.  0.]", shape="box"] ;
150 -> 154 ;
155 [label="tattoos <= 0.5000\ngini = 0.61052734375\nsamples = 320", shape="box"] ;
125 -> 155 ;
156 [label="age_range <= 10.5000\ngini = 0.606715668371\nsamples = 296", shape="box"] ;
155 -> 156 ;
157 [label="n-hands_not_recovered <= 0.5000\ngini = 0.631001371742\nsamples = 81", shape="box"] ;
156 -> 157 ;
158 [label="all_parts_recovered <= 0.5000\ngini = 0.615555555556\nsamples = 60", shape="box"] ;
157 -> 158 ;
159 [label="gini = 0.5455\nsamples = 11\nvalue = [ 1.  0.  1.  2.  7.  0.]", shape="box"] ;
158 -> 159 ;
160 [label="gini = 0.6047\nsamples = 49\nvalue = [  0.   2.   4.  23.  20.   0.]", shape="box"] ;
158 -> 160 ;
161 [label="height_bin <= 0.5000\ngini = 0.571428571429\nsamples = 21", shape="box"] ;
157 -> 161 ;
162 [label="gini = 0.5300\nsamples = 20\nvalue = [  0.   1.   3.  13.   3.   0.]", shape="box"] ;
161 -> 162 ;
163 [label="gini = 0.0000\nsamples = 1\nvalue = [ 1.  0.  0.  0.  0.  0.]", shape="box"] ;
161 -> 163 ;
164 [label="age_range <= 92.5000\ngini = 0.584012979989\nsamples = 215", shape="box"] ;
156 -> 164 ;
165 [label="images <= 5.5000\ngini = 0.568047337278\nsamples = 195", shape="box"] ;
164 -> 165 ;
166 [label="gini = 0.5663\nsamples = 185\nvalue = [   0.    8.   11.   62.  104.    0.]", shape="box"] ;
165 -> 166 ;
167 [label="gini = 0.4200\nsamples = 10\nvalue = [ 0.  0.  3.  0.  7.  0.]", shape="box"] ;
165 -> 167 ;
168 [label="skeletal_findings <= 0.5000\ngini = 0.64\nsamples = 20", shape="box"] ;
164 -> 168 ;
169 [label="gini = 0.5741\nsamples = 18\nvalue = [  0.   1.   1.  10.   6.   0.]", shape="box"] ;
168 -> 169 ;
170 [label="gini = 0.5000\nsamples = 2\nvalue = [ 0.  1.  1.  0.  0.  0.]", shape="box"] ;
168 -> 170 ;
171 [label="other_distinctive_features <= 0.5000\ngini = 0.496527777778\nsamples = 24", shape="box"] ;
155 -> 171 ;
172 [label="images <= 5.5000\ngini = 0.448979591837\nsamples = 21", shape="box"] ;
171 -> 172 ;
173 [label="l_eye <= 0.5000\ngini = 0.354570637119\nsamples = 19", shape="box"] ;
172 -> 173 ;
174 [label="gini = 0.2604\nsamples = 13\nvalue = [  0.   0.   2.  11.   0.   0.]", shape="box"] ;
173 -> 174 ;
175 [label="gini = 0.4444\nsamples = 6\nvalue = [ 0.  0.  0.  4.  2.  0.]", shape="box"] ;
173 -> 175 ;
176 [label="weight_bin <= 0.5000\ngini = 0.5\nsamples = 2", shape="box"] ;
172 -> 176 ;
177 [label="gini = 0.0000\nsamples = 1\nvalue = [ 0.  0.  0.  0.  1.  0.]", shape="box"] ;
176 -> 177 ;
178 [label="gini = 0.0000\nsamples = 1\nvalue = [ 0.  0.  1.  0.  0.  0.]", shape="box"] ;
176 -> 178 ;
179 [label="other_medical_information <= 0.5000\ngini = 0.444444444444\nsamples = 3", shape="box"] ;
171 -> 179 ;
180 [label="gini = 0.0000\nsamples = 2\nvalue = [ 0.  0.  0.  0.  2.  0.]", shape="box"] ;
179 -> 180 ;
181 [label="gini = 0.0000\nsamples = 1\nvalue = [ 0.  0.  0.  1.  0.  0.]", shape="box"] ;
179 -> 181 ;
182 [label="_fingerprints <= 0.5000\ngini = 0.532449418377\nsamples = 5064", shape="box"] ;
124 -> 182 ;
183 [label="images <= 0.5000\ngini = 0.434752949191\nsamples = 3340", shape="box"] ;
182 -> 183 ;
184 [label="age_range <= 84.0000\ngini = 0.522238469356\nsamples = 1749", shape="box"] ;
183 -> 184 ;
185 [label="height_bin <= 0.5000\ngini = 0.497958190723\nsamples = 1599", shape="box"] ;
184 -> 185 ;
186 [label="n-hands_not_recovered <= 0.5000\ngini = 0.506425541327\nsamples = 1147", shape="box"] ;
185 -> 186 ;
187 [label="gini = 0.5514\nsamples = 505\nvalue = [   5.   21.   13.  182.  284.    0.]", shape="box"] ;
186 -> 187 ;
188 [label="gini = 0.4632\nsamples = 642\nvalue = [   1.   20.    4.  185.  432.    0.]", shape="box"] ;
186 -> 188 ;
189 [label="age_range <= 33.5000\ngini = 0.468488135328\nsamples = 452", shape="box"] ;
185 -> 189 ;
190 [label="gini = 0.4456\nsamples = 410\nvalue = [  13.    4.    9.   94.  290.    0.]", shape="box"] ;
189 -> 190 ;
191 [label="gini = 0.6179\nsamples = 42\nvalue = [  1.   1.   4.  16.  20.   0.]", shape="box"] ;
189 -> 191 ;
192 [label="age_range <= 94.0000\ngini = 0.64\nsamples = 150", shape="box"] ;
184 -> 192 ;
193 [label="gini = 0.0000\nsamples = 2\nvalue = [ 0.  2.  0.  0.  0.  0.]", shape="box"] ;
192 -> 193 ;
194 [label="_sex <= 0.5000\ngini = 0.634404674945\nsamples = 148", shape="box"] ;
192 -> 194 ;
195 [label="gini = 0.6163\nsamples = 45\nvalue = [  0.  10.   1.  24.  10.   0.]", shape="box"] ;
194 -> 195 ;
196 [label="gini = 0.6308\nsamples = 103\nvalue = [  0.  12.   5.  48.  38.   0.]", shape="box"] ;
194 -> 196 ;
197 [label="n-hands_not_recovered <= 0.5000\ngini = 0.306677133041\nsamples = 1591", shape="box"] ;
183 -> 197 ;
198 [label="age_range <= 80.0000\ngini = 0.375343474689\nsamples = 861", shape="box"] ;
197 -> 198 ;
199 [label="images <= 1.5000\ngini = 0.361380566632\nsamples = 833", shape="box"] ;
198 -> 199 ;
200 [label="gini = 0.4167\nsamples = 367\nvalue = [   4.    1.    4.   94.  264.    0.]", shape="box"] ;
199 -> 200 ;
201 [label="gini = 0.3125\nsamples = 466\nvalue = [   0.    0.    1.   89.  376.    0.]", shape="box"] ;
199 -> 201 ;
202 [label="images <= 5.5000\ngini = 0.553571428571\nsamples = 28", shape="box"] ;
198 -> 202 ;
203 [label="gini = 0.5651\nsamples = 26\nvalue = [  0.   0.   2.  13.  11.   0.]", shape="box"] ;
202 -> 203 ;
204 [label="gini = 0.0000\nsamples = 2\nvalue = [ 0.  0.  0.  2.  0.  0.]", shape="box"] ;
202 -> 204 ;
205 [label="age_range <= 94.5000\ngini = 0.209405141678\nsamples = 730", shape="box"] ;
197 -> 205 ;
206 [label="images <= 19.5000\ngini = 0.203769329592\nsamples = 727", shape="box"] ;
205 -> 206 ;
207 [label="gini = 0.2000\nsamples = 725\nvalue = [   1.    1.    3.   76.  644.    0.]", shape="box"] ;
206 -> 207 ;
208 [label="gini = 0.0000\nsamples = 2\nvalue = [ 0.  0.  0.  2.  0.  0.]", shape="box"] ;
206 -> 208 ;
209 [label="gini = 0.0000\nsamples = 3\nvalue = [ 0.  0.  0.  3.  0.  0.]", shape="box"] ;
205 -> 209 ;
210 [label="images <= 0.5000\ngini = 0.641890655197\nsamples = 1724", shape="box"] ;
182 -> 210 ;
211 [label="age_range <= 20.5000\ngini = 0.423798757321\nsamples = 686", shape="box"] ;
210 -> 211 ;
212 [label="other_distinctive_features <= 0.5000\ngini = 0.385266389701\nsamples = 592", shape="box"] ;
211 -> 212 ;
213 [label="age_range <= 13.5000\ngini = 0.374789014275\nsamples = 576", shape="box"] ;
212 -> 213 ;
214 [label="gini = 0.3207\nsamples = 334\nvalue = [   7.    0.    9.   47.  271.    0.]", shape="box"] ;
213 -> 214 ;
215 [label="gini = 0.4382\nsamples = 242\nvalue = [   3.    3.    7.   57.  172.    0.]", shape="box"] ;
213 -> 215 ;
216 [label="scars_and_marks <= 0.5000\ngini = 0.5546875\nsamples = 16", shape="box"] ;
212 -> 216 ;
217 [label="gini = 0.5207\nsamples = 13\nvalue = [ 0.  0.  1.  8.  4.  0.]", shape="box"] ;
216 -> 217 ;
218 [label="gini = 0.0000\nsamples = 3\nvalue = [ 0.  0.  0.  0.  3.  0.]", shape="box"] ;
216 -> 218 ;
219 [label="age_range <= 23.0000\ngini = 0.571299230421\nsamples = 94", shape="box"] ;
211 -> 219 ;
220 [label="gini = 0.0000\nsamples = 3\nvalue = [ 0.  0.  0.  3.  0.  0.]", shape="box"] ;
219 -> 220 ;
221 [label="tattoos <= 0.5000\ngini = 0.569013404178\nsamples = 91", shape="box"] ;
219 -> 221 ;
222 [label="gini = 0.5362\nsamples = 78\nvalue = [  0.   2.   3.  28.  45.   0.]", shape="box"] ;
221 -> 222 ;
223 [label="gini = 0.6036\nsamples = 13\nvalue = [ 0.  0.  3.  7.  3.  0.]", shape="box"] ;
221 -> 223 ;
224 [label="images <= 2.5000\ngini = 0.64687909534\nsamples = 1038", shape="box"] ;
210 -> 224 ;
225 [label="images <= 1.5000\ngini = 0.658751936983\nsamples = 704", shape="box"] ;
224 -> 225 ;
226 [label="_face <= 0.5000\ngini = 0.673745699364\nsamples = 402", shape="box"] ;
225 -> 226 ;
227 [label="gini = 0.6738\nsamples = 170\nvalue = [  4.   0.   7.  35.  77.  47.]", shape="box"] ;
226 -> 227 ;
228 [label="gini = 0.6334\nsamples = 232\nvalue = [   1.    0.    1.   60.   56.  114.]", shape="box"] ;
226 -> 228 ;
229 [label="age_range <= 6.5000\ngini = 0.61830621464\nsamples = 302", shape="box"] ;
225 -> 229 ;
230 [label="gini = 0.5184\nsamples = 25\nvalue = [  0.   0.   0.   6.   3.  16.]", shape="box"] ;
229 -> 230 ;
231 [label="gini = 0.6036\nsamples = 277\nvalue = [   1.    0.    0.   47.  146.   83.]", shape="box"] ;
229 -> 231 ;
232 [label="age_range <= 19.5000\ngini = 0.557459930439\nsamples = 334", shape="box"] ;
224 -> 232 ;
233 [label="images <= 14.5000\ngini = 0.493373715446\nsamples = 239", shape="box"] ;
232 -> 233 ;
234 [label="gini = 0.4779\nsamples = 233\nvalue = [   1.    0.    1.   25.   46.  160.]", shape="box"] ;
233 -> 234 ;
235 [label="gini = 0.2778\nsamples = 6\nvalue = [ 0.  0.  0.  5.  0.  1.]", shape="box"] ;
233 -> 235 ;
236 [label="weight_bin <= 0.5000\ngini = 0.659501385042\nsamples = 95", shape="box"] ;
232 -> 236 ;
237 [label="gini = 0.3045\nsamples = 17\nvalue = [  0.   0.   0.   1.   2.  14.]", shape="box"] ;
236 -> 237 ;
238 [label="gini = 0.6798\nsamples = 78\nvalue = [  0.   0.   2.  26.  22.  28.]", shape="box"] ;
236 -> 238 ;
}